// #### Generated By: http://www.cufonfonts.com ####
/*!
 * The following copyright notice may not be removed under any circumstances.
 * 
 * Copyright:
 * ©G.M.
 * 
 * Trademark:
 * GM / Walkway
 */
Cufon.registerFont({"w":525,"face":{"font-family":"Walkway SemiBold","font-weight":400,"font-stretch":"normal","units-per-em":"1000","panose-1":"0 0 4 0 0 0 0 0 0 0","ascent":"800","descent":"-200","x-height":"11","bbox":"-156 -814.016 965 179.014","underline-thickness":"30","underline-position":"-118","unicode-range":"U+0020-U+0131"},"glyphs":{" ":{"w":354},"!":{"d":"80,-169r0,-509r36,0r0,509r-36,0xm97,0v-32,-1,-18,-53,-18,-82v0,-11,6,-17,18,-17v32,1,18,52,18,81v0,12,-6,18,-18,18","w":194},"\"":{"d":"203,-547v-12,0,-18,-6,-18,-17r0,-91v0,-11,6,-17,18,-17v12,0,18,6,18,17r0,91v0,11,-6,17,-18,17xm87,-547v-11,0,-17,-6,-17,-17r0,-91v0,-11,6,-17,17,-17v13,0,19,6,19,17r0,91v0,11,-6,17,-19,17","w":292},"#":{"d":"455,-359r-90,0r-22,89r89,0r-7,33r-89,0r-19,76r-36,0r19,-76r-105,0r-19,76r-36,0r19,-76r-89,0r7,-33r89,0r23,-89r-91,0r9,-33r89,0r19,-76r36,0r-19,76r105,0r18,-76r36,0r-18,76r89,0xm225,-359r-23,89r105,0r22,-89r-104,0","w":531},"$":{"d":"601,-168v0,101,-95,164,-193,178r0,60r-36,0r0,-55v-37,4,-77,2,-111,-3r0,58r-36,0r0,-62v-136,-32,-201,-106,-196,-241r36,0v-3,115,49,179,160,206r0,-324v-101,-23,-174,-62,-174,-165v0,-94,58,-152,174,-173r0,-64r36,0r0,59v34,-1,79,-2,111,2r0,-61r36,0r0,66v117,25,177,94,179,209r-36,0v-6,-95,-54,-154,-143,-175r0,304v121,32,193,56,193,181xm372,-659v-33,-4,-78,-4,-111,0r0,281r111,21r0,-302xm225,-654v-92,20,-138,66,-138,138v0,81,58,109,138,129r0,-267xm408,-24v83,-12,156,-63,157,-147v0,-37,-8,-63,-24,-80v-22,-23,-66,-44,-133,-62r0,289xm372,-321r-111,-22r0,322v33,5,76,7,111,2r0,-302","w":642},"%":{"d":"162,0r-43,0r487,-678r42,0xm560,19v-94,0,-141,-59,-141,-177v0,-121,47,-181,142,-181v94,0,141,60,141,181v0,118,-47,177,-142,177xm190,-301v-93,0,-140,-59,-140,-176v0,-120,47,-180,141,-180v95,0,142,60,142,180v0,117,-48,176,-143,176xm560,-306v-69,0,-104,49,-104,148v0,96,35,144,105,144v69,0,104,-48,104,-144v0,-99,-35,-148,-105,-148xm190,-624v-69,0,-103,49,-103,147v0,96,35,144,104,144v70,0,105,-48,105,-144v0,-98,-35,-147,-106,-147","w":750},"&":{"d":"261,-17v138,0,231,-113,233,-255r36,0r0,291r-36,0r0,-141v-49,88,-134,138,-227,138v-113,0,-234,-64,-228,-169v6,-119,103,-174,213,-231v-82,-40,-123,-95,-123,-164v0,-81,75,-130,160,-130v91,0,162,46,162,132v0,62,-62,127,-187,194v-64,35,-107,62,-129,81v-40,37,-60,76,-60,118v0,84,96,136,186,136xm415,-547v1,-62,-58,-98,-124,-98v-65,0,-126,35,-126,98v0,62,41,111,122,146v85,-48,128,-97,128,-146","w":603},"'":{"d":"87,-547v-11,0,-17,-6,-17,-17r0,-91v0,-11,6,-17,17,-17v13,0,19,6,19,17r0,91v0,11,-6,17,-19,17","w":175},"(":{"d":"190,168v-168,-252,-168,-651,0,-902r39,0v-172,251,-172,651,0,902r-39,0","w":233},")":{"d":"38,168r-39,0v179,-253,179,-650,0,-902r39,0v175,246,175,655,0,902","w":233},"*":{"d":"45,-615v5,-8,15,-9,24,-5r74,35v5,-30,-15,-87,18,-87v34,0,12,58,18,88v28,-12,51,-29,82,-38v18,-1,25,23,7,31r-70,33r71,35v16,6,13,35,-8,31v-32,-6,-54,-26,-82,-38v-5,30,15,87,-18,87v-34,0,-12,-58,-18,-87v-28,12,-50,32,-83,38v-21,4,-23,-23,-7,-31r71,-35r-71,-34v-11,-5,-14,-13,-8,-23","w":340},"+":{"d":"298,-235r0,168r-36,0r0,-168r-191,0r0,-33r191,0r0,-165r36,0r0,165r192,0r0,33r-192,0","w":560},",":{"d":"128,78v-2,19,-40,16,-36,-2v10,-52,30,-100,44,-150v3,-11,10,-15,21,-12v12,3,16,10,13,21","w":262},"-":{"d":"44,-254r0,-20r272,0r0,20r-272,0","w":350},"\u2010":{"d":"44,-254r0,-20r272,0r0,20r-272,0","w":350},".":{"d":"105,2v-31,0,-18,-45,-18,-71v0,-11,6,-16,18,-16v31,0,18,45,18,71v0,11,-6,16,-18,16","w":209},"\/":{"d":"28,0r-38,0r341,-694r38,0","w":350},"0":{"d":"543,-245v2,154,-96,257,-250,257v-154,0,-252,-105,-252,-257r0,-168v-2,-152,99,-258,252,-258v154,0,250,105,250,258r0,168xm292,-21v131,0,215,-91,215,-224r0,-168v2,-131,-84,-225,-215,-225v-132,0,-215,93,-215,225r0,168v-2,131,84,224,215,224","w":584},"1":{"d":"282,0r0,-595r-144,117r-56,0r204,-168r32,0r0,646r-36,0","w":413},"2":{"d":"297,-657v124,-1,219,50,219,164v0,55,-54,113,-161,173v-107,59,-156,86,-216,167v-31,43,-48,83,-49,120r457,0r0,33r-497,0v1,-121,70,-218,202,-301v74,-46,227,-103,229,-195v2,-89,-81,-128,-178,-128v-136,0,-204,67,-204,200r-36,0v-1,-152,85,-232,234,-233","w":584},"3":{"d":"549,-179v0,123,-118,190,-252,190v-160,0,-271,-78,-263,-239r36,0v-13,141,90,205,223,206v114,2,221,-53,221,-157v0,-118,-105,-160,-255,-151r0,-34v136,8,241,-26,241,-132v0,-88,-94,-128,-194,-128v-144,0,-216,63,-216,188r-36,0v-1,-151,95,-221,249,-221v126,0,233,47,233,161v0,78,-41,127,-122,148v90,22,135,78,135,169","w":584},"4":{"d":"427,-220r0,220r-36,0r0,-220r-370,0r215,-427r38,0r-199,394r316,0r0,-394r36,1r0,393r129,0r0,33r-129,0","w":584},"5":{"d":"542,-216v0,143,-107,229,-254,227v-163,-2,-254,-68,-256,-228r36,0v0,133,85,194,221,195v127,1,217,-70,217,-193v0,-123,-96,-194,-225,-194v-85,0,-149,32,-190,96r-38,0r15,-333r444,0r0,33r-408,0r-11,248v45,-52,109,-78,192,-78v146,0,257,87,257,227","w":584},"6":{"d":"56,-446v-1,-130,104,-207,239,-207v137,0,237,80,235,217r-35,0v2,-116,-84,-187,-201,-187v-117,0,-201,67,-201,180r0,119v41,-58,107,-87,198,-87v134,0,235,78,235,209v0,130,-102,208,-237,208v-139,0,-233,-82,-233,-226r0,-226xm491,-202v0,-112,-85,-179,-201,-179v-116,0,-200,66,-200,179v0,114,86,179,200,179v114,0,201,-65,201,-179","w":584},"7":{"d":"217,0r-38,0r306,-613r-426,0r0,-33r480,0","w":584},"8":{"d":"567,-183v0,135,-118,194,-266,194v-149,0,-267,-59,-266,-196v1,-97,66,-153,153,-171v-79,-23,-118,-67,-118,-132v0,-119,101,-169,231,-169v130,0,232,52,232,169v0,64,-40,108,-120,132v103,23,154,80,154,173xm302,-369v91,0,195,-40,195,-120v0,-90,-65,-135,-196,-135v-130,0,-195,46,-195,137v0,78,107,118,196,118xm301,-22v128,0,230,-47,230,-162v0,-101,-76,-152,-229,-152v-154,0,-231,51,-231,152v0,114,103,162,230,162","w":601},"9":{"d":"295,-662v138,0,234,83,234,226r0,245v2,129,-106,206,-240,206v-137,0,-236,-78,-234,-215r35,0v-2,120,83,186,200,186v113,0,202,-67,201,-179r0,-139v-41,58,-107,87,-198,87v-134,0,-234,-78,-234,-208v0,-129,102,-209,236,-209xm495,-453v0,-112,-84,-180,-201,-180v-114,0,-200,65,-200,180v0,114,86,178,200,178v114,0,201,-64,201,-178","w":584},":":{"d":"123,-366v-32,-1,-18,-52,-18,-81v0,-12,6,-18,18,-18v29,2,18,53,18,81v0,12,-6,18,-18,18xm123,2v-32,-1,-18,-52,-18,-81v0,-12,6,-18,18,-18v29,2,18,53,18,81v0,12,-6,18,-18,18","w":244},";":{"d":"143,-366v-32,-1,-18,-52,-18,-81v0,-12,6,-18,18,-18v32,1,18,52,18,81v0,12,-6,18,-18,18xm122,77v-2,20,-41,17,-36,-2r44,-158v3,-12,10,-16,21,-13v12,3,16,10,13,22","w":251},"<":{"d":"41,-225r0,-31r445,-179r0,35r-399,160r399,160r0,35","w":535},"=":{"d":"43,-282r0,-31r545,0r0,31r-545,0xm43,-167r0,-31r545,0r0,31r-545,0","w":630},">":{"d":"41,-45r0,-35r398,-160r-398,-160r0,-35r445,179r0,31","w":535},"?":{"d":"265,-694v112,-1,215,58,213,162v0,57,-35,112,-102,169v-78,67,-108,106,-102,194r-37,0v-4,-92,27,-141,100,-206v64,-57,101,-70,105,-157v4,-87,-82,-129,-178,-129v-120,0,-186,58,-199,173r-33,-19v15,-120,100,-186,233,-187xm254,0v-31,-2,-17,-54,-17,-82v0,-11,6,-17,17,-17v34,0,19,52,19,81v0,12,-6,18,-19,18"},"@":{"d":"787,-399v0,114,-77,244,-193,258v-43,-5,-42,-34,-33,-87v-65,113,-264,143,-342,33v-60,-84,-29,-222,29,-293v79,-96,304,-111,345,19r13,-96r34,0r-50,380v1,5,4,8,11,8v89,0,149,-142,149,-224v0,-157,-146,-262,-310,-262v-194,0,-349,132,-349,323v0,188,157,321,348,319v124,-2,254,-65,300,-148r41,0v-48,101,-195,177,-336,180v-213,4,-392,-148,-392,-356v0,-204,176,-350,384,-350v187,0,351,117,351,296xm578,-348v15,-116,-45,-186,-157,-186v-121,0,-203,104,-203,225v0,94,56,153,151,153v111,0,196,-91,209,-192","w":840},"A":{"d":"603,0r-97,-218r-372,0r-99,218r-42,0r312,-678r37,0r300,678r-39,0xm324,-628r-174,377r342,0","w":636},"B":{"d":"613,-185v0,126,-114,185,-254,185r-317,0r0,-678r330,0v123,-1,220,58,219,175v0,71,-42,120,-127,148v99,21,149,78,149,170xm555,-508v0,-92,-84,-137,-185,-137r-292,0r0,275r291,0v100,1,186,-45,186,-138xm578,-184v0,-106,-94,-153,-211,-153r-289,0r0,304r293,0v111,2,208,-49,207,-151","w":642},"C":{"d":"44,-334v0,-214,142,-351,358,-351v127,0,219,41,276,123r-30,20v-49,-73,-131,-110,-246,-110v-192,0,-322,123,-322,314v0,188,123,312,311,312v110,0,193,-37,248,-112r31,20v-63,83,-155,125,-278,125v-211,0,-348,-132,-348,-341","w":719},"D":{"d":"645,-338v0,219,-145,338,-368,338r-227,0r0,-678r265,0v216,-1,330,123,330,340xm609,-338v0,-198,-100,-307,-295,-307r-228,0r0,612r194,0v202,1,329,-104,329,-305","w":680},"E":{"d":"50,0r0,-678r501,0r0,33r-466,0r0,275r413,0r0,32r-413,0r0,305r471,0r0,33r-506,0","w":564},"F":{"d":"85,-645r0,275r368,0r0,32r-368,0r0,338r-35,0r0,-678r465,0r0,33r-430,0","w":505},"G":{"d":"714,-324v30,210,-128,330,-323,331v-221,2,-364,-126,-364,-344v0,-214,141,-350,357,-348v178,1,292,78,321,229r-37,0v-29,-131,-124,-196,-283,-196v-195,0,-322,120,-322,314v0,199,128,313,328,312v162,-1,303,-94,289,-265r-291,0r0,-33r325,0","w":758},"H":{"d":"595,0r0,-338r-509,0r0,338r-36,0r0,-678r36,0r0,308r509,0r0,-308r36,0r0,678r-36,0","w":680},"I":{"d":"50,0r0,-678r36,0r0,678r-36,0","w":134},"J":{"d":"219,-26v129,0,177,-45,177,-173r0,-479r36,0r0,485v0,133,-70,200,-209,200v-130,0,-200,-54,-211,-163r36,0v7,87,64,130,171,130","w":486},"K":{"d":"619,0r-381,-367r-152,119r0,248r-36,0r0,-678r36,0r0,387r508,-387r57,0r-384,291r401,387r-49,0","w":670},"L":{"d":"50,0r0,-678r36,0r0,645r428,0r0,33r-464,0","w":505},"M":{"d":"733,0r0,-619r-307,619r-33,0r-307,-619r0,619r-36,0r0,-678r46,0r313,631r314,-631r46,0r0,678r-36,0","w":819},"N":{"d":"588,0r-502,-629r0,629r-36,0r0,-678r42,0r503,627r0,-627r36,0r0,678r-43,0","w":680},"O":{"d":"732,-339v0,216,-138,346,-353,346v-217,0,-351,-131,-351,-346v0,-214,136,-336,351,-336v215,0,353,122,353,336xm696,-339v0,-193,-121,-303,-317,-303v-194,0,-315,111,-315,303v0,191,122,313,315,313v196,0,317,-119,317,-313","w":757},"P":{"d":"597,-488v1,124,-115,186,-251,186r-260,0r0,302r-36,0r0,-678r307,0v160,0,240,63,240,190xm364,-336v104,2,196,-53,196,-151v0,-105,-66,-158,-197,-158r-277,0r0,309r278,0","w":621},"Q":{"d":"732,-338v-1,178,-98,299,-247,333v38,48,114,37,194,38r0,33v-104,2,-185,6,-231,-63v-251,34,-420,-103,-420,-341v0,-215,136,-337,351,-337v215,0,354,122,353,337xm696,-338v2,-196,-122,-304,-317,-304v-194,0,-316,111,-315,304v0,95,28,170,83,226v15,-60,79,-104,151,-104v82,0,160,60,158,142v0,13,3,27,8,40v141,-29,231,-139,232,-304xm422,-75v4,-97,-130,-141,-205,-84v-25,19,-38,42,-41,71v66,50,153,72,255,59v-6,-15,-9,-30,-9,-46","w":757},"R":{"d":"470,-330v80,24,120,78,120,161r0,169r-36,0r0,-166v0,-96,-65,-144,-194,-144r-274,0r0,310r-36,0r0,-678r319,0v154,0,231,58,231,175v0,88,-43,146,-130,173xm355,-344v115,1,209,-50,209,-156v0,-97,-64,-145,-193,-145r-285,0r0,301r269,0","w":642},"S":{"d":"601,-169v0,120,-136,176,-271,176v-179,0,-309,-67,-301,-241r36,0v-4,143,83,206,266,208v120,2,236,-42,234,-146v-1,-81,-42,-104,-113,-126v-43,-14,-283,-63,-315,-83v-55,-35,-86,-75,-86,-134v0,-113,87,-170,260,-170v181,0,273,69,276,208r-36,0v-10,-134,-89,-175,-240,-175v-149,0,-224,46,-224,137v0,103,87,120,203,142v121,22,201,45,241,70v47,28,70,73,70,134","w":642},"T":{"d":"291,-645r0,645r-36,0r0,-645r-260,0r0,-33r555,0r0,33r-259,0","w":545},"U":{"d":"614,-252v-1,182,-94,259,-282,259v-190,0,-282,-76,-282,-261r0,-424r36,0r0,423v0,153,82,229,246,229v164,0,246,-75,246,-225r0,-427r36,0r0,426","w":664},"V":{"d":"335,0r-33,0r-300,-678r37,0r280,630r271,-630r37,0","w":628},"W":{"d":"684,0r-33,0r-164,-384r-160,384r-33,0r-289,-678r37,0r269,630r156,-381r-105,-249r37,0r269,630r260,-630r37,0","w":970},"X":{"d":"573,0r-269,-322r-272,322r-46,0r294,-349r-279,-329r48,0r255,303r257,-303r47,0r-279,329r290,349r-46,0","w":604},"Y":{"d":"332,-330r0,330r-36,0r0,-330r-313,-348r46,0r284,314r285,-314r45,0","w":626},"Z":{"d":"30,0r0,-35r515,-610r-486,0r0,-33r531,0r0,34r-516,611r524,0r0,33r-568,0","w":626},"[":{"d":"94,168r0,-902r133,0r0,33r-97,0r0,836r97,0r0,33r-133,0","w":233},"\\":{"d":"324,0r-344,-694r38,0r344,694r-38,0","w":350},"]":{"d":"138,168r-131,0r0,-33r96,0r0,-836r-96,0r0,-33r133,0","w":233},"^":{"d":"208,-511r-61,-97r-61,97r-38,0r84,-135r29,0r88,135r-41,0","w":298},"_":{"d":"-8,119r0,-48r541,0r0,48r-541,0"},"`":{"d":"165,-532v-7,5,-17,5,-25,-3r-114,-110v-9,-9,-8,-17,2,-24v9,-6,18,-6,27,3r113,111v8,9,7,16,-3,23","w":193},"a":{"d":"22,-243v0,-152,93,-257,242,-257v98,0,167,39,207,118r0,-116r36,0r0,498r-36,0r0,-110v-43,81,-113,121,-211,121v-146,0,-238,-106,-238,-254xm471,-243v0,-135,-76,-224,-212,-224v-124,0,-202,97,-202,224v0,129,76,221,202,221v124,0,212,-96,212,-221","w":564},"b":{"d":"534,-244v0,152,-89,256,-242,254v-95,-1,-171,-51,-205,-119r0,109r-36,0r0,-678r36,0r0,292v39,-79,107,-118,206,-118v151,-1,241,105,241,260xm499,-245v0,-133,-74,-226,-202,-226v-137,0,-210,88,-210,229v0,125,86,219,211,219v126,0,201,-93,201,-222","w":564},"c":{"d":"498,-148v-22,99,-105,158,-224,159v-150,1,-248,-97,-248,-246v0,-160,99,-266,259,-265v108,1,186,56,207,145r-33,17v-22,-86,-81,-129,-176,-129v-136,-1,-221,93,-221,232v0,129,81,214,211,213v101,-1,175,-52,190,-141"},"d":{"d":"22,-245v0,-153,93,-259,242,-259v98,0,167,40,207,119r0,-293r36,0r0,678r-36,0r0,-110v-43,81,-113,121,-211,121v-147,0,-238,-107,-238,-256xm471,-245v0,-135,-76,-226,-212,-226v-124,0,-202,100,-202,226v0,130,76,223,202,223v124,0,212,-97,212,-223","w":564},"e":{"d":"265,-500v156,1,257,99,246,266r-457,1v4,141,73,211,208,211v96,0,169,-47,196,-122r37,0v-30,100,-111,154,-235,155v-157,1,-241,-94,-241,-254v0,-149,97,-258,246,-257xm469,-266v-1,-120,-82,-201,-204,-201v-125,0,-203,83,-211,201r415,0"},"f":{"d":"334,-634v-152,2,-214,58,-203,194r111,0r0,34r-111,0r0,407r-36,0r0,-407r-72,0r0,-34r72,0v-11,-157,62,-224,239,-226r0,32","w":267},"g":{"d":"264,-500v92,1,165,48,197,112r0,-100r36,0r0,468v0,133,-77,199,-231,199v-122,1,-209,-51,-214,-165r36,0v7,88,67,132,179,132v129,0,194,-56,194,-167r0,-90v-35,62,-113,106,-204,107v-144,2,-234,-103,-234,-246v0,-148,92,-252,241,-250xm461,-248v0,-119,-79,-219,-199,-219v-121,0,-203,94,-203,216v0,125,74,214,196,214v123,0,206,-86,206,-211","w":545},"h":{"d":"274,-504v115,0,200,62,199,171r0,333r-36,0r0,-323v1,-97,-66,-148,-162,-148v-115,0,-188,81,-188,195r0,276r-36,0r0,-678r36,0r0,274v33,-67,96,-100,187,-100"},"i":{"d":"87,-603v-11,16,-29,19,-36,-1v-3,-37,-2,-114,36,-69r0,70xm51,0r0,-492r36,0r0,492r-36,0","w":136},"j":{"d":"87,-602v-12,15,-29,18,-36,-2v-3,-37,-2,-114,36,-69r0,71xm-156,179r0,-32v136,0,204,-56,204,-169r0,-469r36,0r0,470v0,133,-80,200,-240,200","w":136},"k":{"d":"468,0r-261,-280r-120,87r0,193r-36,0r0,-678r36,0r0,443r353,-258r64,1r-269,190r281,302r-48,0","w":532},"l":{"d":"51,0r0,-678r36,0r0,678r-36,0","w":136},"m":{"d":"250,-467v-102,0,-163,86,-163,193r0,274r-36,0r0,-488r36,0r0,85v32,-65,90,-97,173,-97v80,0,132,33,157,99v29,-66,87,-99,173,-99v117,0,176,56,176,169r0,331r-36,0r0,-321v0,-97,-46,-146,-138,-146v-98,0,-165,63,-165,160r0,307r-36,0r0,-321v0,-97,-47,-146,-141,-146","w":817},"n":{"d":"274,-500v114,-1,199,61,199,169r0,331r-36,0r0,-321v1,-96,-66,-146,-162,-146v-114,0,-188,80,-188,193r0,274r-36,0r0,-488r36,0r0,88v33,-67,96,-100,187,-100"},"o":{"d":"525,-244v0,151,-102,255,-253,255v-151,0,-250,-103,-250,-255v0,-152,100,-256,252,-256v152,0,251,104,251,256xm489,-244v0,-134,-82,-223,-216,-223v-132,0,-215,91,-215,223v0,131,84,222,215,222v131,0,216,-91,216,-222","w":545},"p":{"d":"534,-244v0,155,-88,259,-241,258v-99,0,-167,-39,-206,-117r0,271r-36,0r0,-656r36,0r0,106v33,-70,108,-117,205,-118v153,-2,242,105,242,256xm499,-243v0,-129,-75,-224,-201,-224v-128,0,-211,93,-211,221v0,141,72,227,210,227v127,0,202,-94,202,-224","w":564},"q":{"d":"22,-244v0,-148,95,-256,240,-256v99,0,169,39,208,118r0,-106r36,0r0,656r-36,0r0,-269v-37,77,-108,115,-212,115v-142,0,-236,-112,-236,-258xm471,-243v0,-129,-84,-224,-214,-224v-124,0,-199,96,-199,224v0,127,77,224,200,224v136,0,213,-86,213,-224","w":564},"r":{"d":"300,-467v-147,-2,-213,117,-213,272r0,195r-36,0r0,-488r36,0r0,106v31,-70,114,-120,213,-118r0,33","w":318},"s":{"d":"443,-125v0,96,-87,138,-194,138v-143,0,-215,-63,-215,-190r38,0v0,103,59,155,178,155v82,0,155,-31,155,-103v0,-46,-35,-77,-106,-93v-5,-1,-38,-7,-101,-17v-95,-15,-143,-57,-143,-127v0,-88,83,-139,177,-139v138,0,207,56,208,168r-39,0v0,-89,-55,-133,-164,-133v-73,0,-144,37,-144,104v0,80,129,94,209,107v94,17,141,60,141,130","w":486},"t":{"d":"149,-430r0,430r-34,0r-2,-430r-99,0r0,-34r99,0r0,-150r36,0r0,150r101,0r0,34r-101,0","w":263},"u":{"d":"250,-22v121,0,187,-78,187,-201r0,-265r36,0r0,488r-36,0r0,-88v-35,66,-97,99,-187,99v-118,0,-199,-62,-199,-180r0,-319r36,0r0,318v-1,98,64,148,163,148"},"v":{"d":"263,0r-36,0r-230,-488r43,0r205,447r190,-447r39,0","w":471},"w":{"d":"555,0r-37,0r-128,-287r-119,287r-36,0r-218,-488r41,0r195,446r117,-291r-71,-155r43,0r194,446r180,-446r39,0","w":771},"x":{"d":"434,0r-201,-227r-200,227r-45,0r223,-253r-203,-235r47,0r178,210r183,-210r44,0r-203,235r222,253r-45,0","w":467},"y":{"d":"250,-19v121,1,187,-78,187,-202r0,-267r36,0r0,468v0,133,-77,199,-232,199v-122,1,-208,-53,-213,-165r36,0v7,88,67,132,179,132v156,1,207,-78,194,-231v-35,67,-97,100,-187,100v-119,0,-199,-63,-199,-182r0,-321r36,0r0,320v-1,99,64,149,163,149"},"z":{"d":"21,0r0,-33r369,-422r-340,0r0,-33r386,0r0,32r-370,423r387,0r0,33r-432,0","w":473},"{":{"d":"194,42v-2,69,6,96,68,93r0,33v-71,5,-104,-26,-104,-101r0,-225v-4,-83,-11,-82,-76,-112r0,-27v66,-29,76,-28,76,-111r0,-225v0,-75,33,-106,104,-101r0,33v-61,-3,-68,25,-68,92r0,203v-3,76,-12,97,-65,123v55,25,65,46,65,123r0,202","w":350},"|":{"d":"99,32r0,-738r36,0r0,738r-36,0","w":233},"}":{"d":"262,-270v-67,30,-76,28,-76,112r0,225v0,74,-34,106,-104,101r0,-33v60,3,68,-26,68,-93r0,-202v3,-77,9,-99,64,-123v-54,-26,-64,-46,-64,-123r0,-203v1,-67,-8,-95,-68,-92r0,-33v70,-5,104,26,104,101r0,225v4,83,9,83,76,111r0,27","w":350},"~":{"d":"501,-456v-8,60,-57,105,-121,105v-28,7,-188,-66,-212,-66v-41,0,-65,22,-73,67r-47,0v8,-58,58,-104,122,-104v27,-7,186,72,210,67v41,0,66,-23,74,-69r47,0","w":548},"\u00c7":{"d":"44,-333v0,-214,142,-352,358,-352v127,0,219,41,276,123r-30,20v-49,-73,-131,-110,-246,-110v-192,0,-322,124,-322,315v0,190,121,313,311,313v110,0,193,-37,248,-111r31,20v-63,83,-155,125,-278,125v-211,0,-348,-133,-348,-343xm444,98v4,-30,-71,-41,-98,-27v0,-33,5,-61,7,-92r36,0r-2,54v60,-5,98,20,98,69v0,82,-129,85,-213,53r17,-31v57,24,148,29,155,-26","w":719},"\u00d6":{"d":"437,-724v-30,0,-18,-46,-18,-73v0,-11,6,-17,18,-17v28,0,18,46,18,71v0,13,-6,19,-18,19xm321,-724v-28,0,-17,-47,-17,-73v0,-11,6,-17,17,-17v29,0,19,45,19,71v0,13,-6,19,-19,19xm732,-340v0,216,-138,347,-353,347v-217,0,-351,-132,-351,-347v0,-215,136,-337,351,-337v215,0,353,122,353,337xm696,-340v0,-194,-120,-304,-317,-304v-194,0,-315,111,-315,304v0,192,122,314,315,314v196,0,317,-120,317,-314","w":757},"\u00dc":{"d":"390,-724v-30,0,-18,-46,-18,-73v0,-11,6,-17,18,-17v31,0,18,45,18,71v0,13,-6,19,-18,19xm274,-724v-28,0,-17,-47,-17,-73v0,-11,6,-17,17,-17v32,-1,19,44,19,71v0,13,-6,19,-19,19xm614,-253v-1,183,-94,260,-282,260v-190,0,-282,-77,-282,-262r0,-425r36,0r0,424v0,153,82,230,246,230v164,0,246,-75,246,-226r0,-428r36,0r0,427","w":664},"\u00e7":{"d":"498,-146v-22,100,-105,160,-224,161v-150,2,-248,-99,-248,-248v0,-160,99,-268,259,-267v108,1,186,56,207,146r-33,17v-22,-87,-81,-130,-176,-130v-137,0,-221,94,-221,234v0,128,81,215,211,214v101,-1,175,-52,190,-142xm350,98v7,-29,-72,-41,-99,-26v0,-34,6,-61,8,-92r36,0r-2,53v62,-2,97,21,97,69v0,82,-127,85,-212,54r16,-32v34,11,61,17,82,17v49,0,74,-14,74,-43"},"\u00f6":{"d":"331,-534v-30,0,-18,-46,-18,-73v0,-11,6,-17,18,-17v31,0,18,45,18,71v0,13,-6,19,-18,19xm215,-534v-28,0,-17,-47,-17,-73v0,-11,6,-17,17,-17v32,-1,19,44,19,71v0,13,-6,19,-19,19xm525,-245v0,152,-101,256,-253,256v-152,0,-250,-106,-250,-256v0,-152,100,-258,252,-258v152,0,251,106,251,258xm489,-245v0,-134,-82,-225,-216,-225v-132,0,-215,93,-215,225v0,132,86,223,215,223v129,0,216,-91,216,-223","w":545},"\u00fc":{"d":"320,-534v-28,0,-17,-47,-17,-73v0,-11,6,-17,17,-17v32,-1,19,44,19,71v0,13,-6,19,-19,19xm205,-534v-30,0,-18,-46,-18,-73v0,-11,6,-17,18,-17v31,0,18,45,18,71v0,13,-6,19,-18,19xm250,-22v122,1,187,-78,187,-203r0,-266r36,0r0,491r-36,0r0,-88v-35,66,-97,99,-187,99v-118,1,-199,-63,-199,-181r0,-321r36,0r0,320v-1,98,64,149,163,149"},"\u0131":{"d":"51,0r0,-488r36,0r0,488r-36,0","w":136},"\u00a0":{"w":354}}});
/*!
 * The following copyright notice may not be removed under any circumstances.
 * 
 * Copyright:
 * ©G.M.
 * 
 * Trademark:
 * GM / Walkway
 */
Cufon.registerFont({"w":525,"face":{"font-family":"Walkway UltraBold","font-weight":400,"font-stretch":"normal","units-per-em":"1000","panose-1":"0 0 4 0 0 0 0 0 0 0","ascent":"800","descent":"-200","x-height":"11","bbox":"-171 -814 988 179","underline-thickness":"30","underline-position":"-118","unicode-range":"U+0020-U+0131"},"glyphs":{" ":{"w":354},"!":{"d":"65,-162r0,-516r66,0r0,516r-66,0xm97,0v-46,0,-33,-53,-33,-93v0,-21,11,-31,33,-31v46,0,33,52,33,92v0,21,-11,32,-33,32","w":194},"\"":{"d":"203,-547v-51,0,-33,-58,-33,-99v0,-17,11,-26,33,-26v51,0,33,57,33,98v0,18,-11,27,-33,27xm87,-547v-49,0,-32,-58,-32,-99v0,-17,11,-26,32,-26v52,0,34,56,34,98v0,18,-11,27,-34,27","w":292},"#":{"d":"467,-341r-90,0r-14,53r88,0r-14,58r-89,0r-19,69r-68,0r19,-69r-73,0r-19,69r-68,0r19,-69r-88,0r14,-58r89,0r15,-53r-91,0r18,-58r88,0r19,-69r68,0r-19,69r73,0r18,-69r67,0r-18,69r89,0xm237,-341r-15,53r73,0r14,-53r-72,0","w":531},"$":{"d":"616,-174v0,102,-96,166,-193,184r0,60r-66,0r0,-52v-28,2,-55,1,-81,-2r0,54r-66,0r0,-63v-141,-37,-204,-113,-196,-259r66,0v-6,108,35,166,130,195r0,-282v-116,-29,-174,-86,-174,-171v0,-95,58,-155,174,-179r0,-64r66,0r0,57v26,-2,55,-1,81,0r0,-57r66,0r0,67v117,27,177,103,179,227r-65,0v-6,-87,-44,-142,-114,-164r0,263v119,31,193,63,193,186xm357,-634v-25,-2,-56,-3,-81,-1r0,246r81,15r0,-260xm210,-624v-72,19,-108,57,-108,114v0,50,36,85,108,106r0,-220xm550,-177v0,-91,-45,-86,-127,-118r0,242v85,-19,127,-61,127,-124xm357,-310r-81,-15r0,280v25,2,53,2,81,2r0,-267","w":642},"%":{"d":"560,19v-104,0,-156,-61,-156,-184v0,-125,52,-188,157,-188v104,0,156,63,156,188v0,123,-52,184,-157,184xm170,1r-81,0r509,-679r80,0xm190,-288v-103,0,-155,-61,-155,-183v0,-125,52,-187,156,-187v105,0,157,62,157,187v0,122,-53,183,-158,183xm560,-292v-59,0,-89,42,-89,127v0,82,30,123,90,123v59,0,89,-41,89,-123v0,-85,-30,-127,-90,-127xm190,-597v-59,0,-88,42,-88,126v0,82,30,123,89,123v60,0,90,-41,90,-123v0,-84,-30,-126,-91,-126","w":750},"&":{"d":"261,-45v134,0,219,-100,218,-244r66,0r0,308r-66,0r0,-102v-56,66,-127,99,-212,99v-119,0,-243,-66,-243,-176v0,-81,65,-155,196,-222v-71,-40,-106,-92,-106,-157v0,-87,83,-139,175,-139v97,0,178,49,177,141v0,65,-65,132,-195,199v-63,33,-105,58,-126,76v-37,32,-55,66,-55,102v-1,72,92,115,171,115xm400,-538v0,-54,-52,-79,-109,-79v-57,0,-111,28,-111,79v0,52,35,93,106,124v76,-42,114,-83,114,-124","w":603},"'":{"d":"87,-547v-49,0,-32,-58,-32,-99v0,-17,11,-26,32,-26v52,0,34,56,34,98v0,18,-11,27,-34,27","w":175},"(":{"d":"182,168v-177,-259,-177,-644,0,-902r75,0v-189,273,-189,629,0,902r-75,0","w":233},")":{"d":"46,168r-75,0v196,-273,196,-629,0,-902r75,0v184,253,184,648,0,902","w":233},"*":{"d":"245,-625v37,-19,70,32,30,50r-41,18v20,8,60,21,60,43v0,17,-14,28,-31,27v-8,0,-31,-8,-69,-25v0,35,6,69,-33,69v-39,0,-33,-34,-33,-69v-39,17,-62,25,-70,25v-17,1,-30,-10,-31,-27v0,-22,42,-35,62,-44v-21,-8,-62,-20,-62,-43v0,-16,17,-28,32,-27v22,1,21,7,69,25v0,-35,-6,-69,33,-69v39,0,33,34,33,69","w":340},"+":{"d":"313,-222r0,155r-66,0r0,-155r-191,0r0,-59r191,0r0,-152r66,0r0,152r192,0r0,59r-192,0","w":560},",":{"d":"143,70v-8,35,-77,24,-64,-15r42,-121v8,-33,78,-24,64,15","w":262},"-":{"d":"29,-254r0,-20r302,0r0,20r-302,0","w":350},"\u2010":{"d":"29,-254r0,-20r302,0r0,20r-302,0","w":350},".":{"d":"105,2v-41,0,-33,-30,-33,-64v0,-15,11,-23,33,-23v41,0,33,30,33,64v0,15,-11,23,-33,23","w":209},"\/":{"d":"37,0r-71,0r356,-694r71,0","w":350},"0":{"d":"558,-248v1,156,-105,260,-265,260v-159,0,-267,-106,-267,-260r0,-162v-1,-154,109,-261,267,-261v160,0,266,105,265,261r0,162xm292,-49v122,0,201,-80,200,-199r0,-162v1,-120,-79,-200,-200,-200v-123,0,-201,80,-200,200r0,162v-1,119,79,199,200,199","w":584},"1":{"d":"267,0r0,-552r-124,96r-103,0r241,-190r52,0r0,646r-66,0","w":413},"2":{"d":"297,-657v130,-2,234,53,234,171v0,59,-55,122,-169,179v-122,61,-236,142,-256,246r456,0r0,61r-527,0v1,-131,70,-238,209,-315r141,-78v54,-31,81,-63,81,-96v-1,-78,-76,-108,-163,-107v-133,1,-188,56,-189,190r-66,0v-2,-169,88,-249,249,-251","w":584},"3":{"d":"564,-185v0,127,-128,196,-267,196v-170,0,-291,-82,-278,-257r66,0v-16,139,79,195,208,196v105,1,206,-43,206,-135v0,-87,-62,-130,-187,-130r-68,0r0,-61r69,0v115,0,172,-38,172,-113v-1,-76,-89,-108,-179,-107v-136,2,-200,48,-201,179r-66,0v-2,-167,97,-240,264,-240v132,0,249,50,248,168v0,67,-30,115,-91,142v69,30,104,84,104,162","w":584},"4":{"d":"442,-210r0,210r-66,0r0,-210r-380,0r231,-437r72,0r-199,376r276,0r0,-377r66,3r0,374r129,0r0,61r-129,0","w":584},"5":{"d":"557,-221v0,145,-116,234,-269,232v-171,-2,-273,-74,-271,-247r66,0v-1,136,73,185,206,186v115,1,202,-57,202,-170v0,-111,-91,-171,-210,-171v-80,0,-141,31,-182,93r-62,0r16,-348r474,0r0,61r-408,0r-9,187v45,-36,104,-54,175,-54v151,0,272,87,272,231","w":584},"6":{"d":"41,-441v-2,-135,114,-213,254,-212v150,1,253,83,250,237r-65,0v3,-120,-74,-178,-186,-179v-106,-1,-186,55,-186,157r0,75v44,-39,105,-59,183,-59v140,-2,250,80,250,215v0,135,-111,213,-252,213v-146,0,-248,-83,-248,-231r0,-216xm476,-207v0,-102,-80,-157,-186,-157v-105,0,-185,54,-185,157v0,102,80,156,185,156v105,0,186,-54,186,-156","w":584},"7":{"d":"226,0r-71,0r306,-585r-417,0r0,-61r519,0","w":584},"8":{"d":"582,-189v1,139,-126,200,-281,200v-155,0,-281,-62,-281,-202v0,-80,41,-135,122,-165v-58,-29,-87,-71,-87,-125v0,-124,109,-176,246,-176v135,0,247,53,247,176v0,54,-30,96,-89,125v82,30,123,86,123,167xm302,-382v81,0,179,-32,180,-100v0,-76,-60,-114,-181,-114v-120,0,-180,39,-180,116v0,67,102,98,181,98xm86,-190v1,102,100,140,215,140v143,0,215,-47,215,-140v0,-87,-71,-131,-214,-131v-144,0,-216,44,-216,131","w":601},"9":{"d":"295,-662v144,0,249,84,249,231r0,234v2,134,-114,213,-255,212v-150,-2,-252,-80,-249,-235r65,0v-2,122,70,176,185,178v104,1,186,-56,186,-157r0,-94v-44,39,-105,59,-183,59v-141,0,-249,-79,-249,-214v0,-134,112,-214,251,-214xm480,-448v-1,-101,-80,-157,-186,-157v-107,0,-185,56,-185,157v0,103,80,157,185,157v105,0,187,-54,186,-157","w":584},":":{"d":"123,-344v-45,0,-33,-51,-33,-90v0,-21,11,-31,33,-31v42,0,33,52,33,90v0,21,-11,31,-33,31xm123,2v-45,0,-33,-51,-33,-90v0,-21,11,-31,33,-31v42,0,33,52,33,90v0,21,-11,31,-33,31","w":244},";":{"d":"143,-342v-46,0,-33,-51,-33,-91v0,-21,11,-32,33,-32v45,0,33,52,33,92v0,21,-11,31,-33,31xm137,67v-7,34,-72,31,-66,-6v9,-55,33,-101,44,-153v7,-33,71,-29,65,6v-9,55,-32,101,-43,153","w":251},"<":{"d":"26,-216r0,-49r475,-176r0,62r-373,139r373,139r0,62","w":535},"=":{"d":"28,-262r0,-51r575,0r0,51r-575,0xm28,-167r0,-51r575,0r0,51r-575,0","w":630},">":{"d":"26,-39r0,-62r372,-139r-372,-139r0,-62r475,176r0,49","w":535},"?":{"d":"265,-694v119,-1,228,61,228,170v0,60,-38,115,-107,172v-80,66,-104,95,-97,190r-67,0v-6,-105,25,-153,106,-223v60,-52,99,-61,99,-139v0,-77,-77,-110,-163,-109v-125,2,-173,55,-186,175r-62,-34v17,-132,104,-200,249,-202xm254,0v-45,0,-32,-54,-32,-93v0,-21,11,-31,32,-31v47,0,34,52,34,92v0,21,-11,32,-34,32"},"@":{"d":"802,-396v0,117,-85,261,-208,261v-34,0,-52,-17,-53,-52v-45,43,-103,65,-174,66v-115,2,-195,-73,-196,-186v-2,-152,105,-263,256,-263v72,0,125,20,158,61r8,-61r64,0r-52,374v-2,0,-8,-2,-4,-2v77,-15,134,-129,134,-200v0,-144,-144,-237,-295,-237v-183,0,-334,118,-334,295v0,175,154,294,333,291v121,-2,245,-59,291,-142r76,0v-63,122,-199,198,-362,202v-218,5,-407,-145,-407,-356v0,-207,186,-350,399,-350v192,0,366,116,366,299xm565,-382v0,-87,-51,-130,-144,-130v-111,0,-188,92,-188,202v0,83,51,133,136,131v112,-3,196,-85,196,-203","w":840},"A":{"d":"593,0r-97,-209r-353,0r-99,209r-74,0r326,-678r56,0r314,678r-73,0xm324,-581r-151,311r295,0","w":636},"B":{"d":"628,-192v1,130,-124,192,-269,192r-332,0r0,-678r345,0v129,-2,235,61,234,182v0,60,-32,106,-97,139v79,28,119,83,119,165xm540,-501v0,-86,-77,-115,-170,-116r-277,0r0,234r276,0v92,2,171,-37,171,-118xm563,-191v0,-185,-287,-118,-470,-131r0,261r278,0v102,2,192,-40,192,-130","w":642},"C":{"d":"29,-334v0,-217,152,-351,373,-351v133,0,232,45,298,136r-56,35v-52,-73,-133,-110,-242,-110v-181,0,-307,109,-307,286v0,175,117,284,296,284v105,0,187,-37,245,-112r55,35v-72,92,-172,138,-299,138v-215,0,-363,-131,-363,-341","w":719},"D":{"d":"660,-338v0,219,-155,338,-383,338r-242,0r0,-678r280,0v220,-1,345,122,345,340xm594,-338v-1,-183,-93,-280,-280,-279r-213,0r0,556r179,0v192,1,315,-89,314,-277","w":680},"E":{"d":"35,0r0,-678r531,0r0,61r-466,0r0,234r413,0r0,60r-413,0r0,262r471,0r0,61r-536,0","w":564},"F":{"d":"100,-617r0,234r368,0r0,60r-368,0r0,323r-65,0r0,-678r495,0r0,61r-430,0","w":505},"G":{"d":"727,-339v40,221,-131,345,-336,346v-226,2,-379,-124,-379,-344v0,-217,151,-351,372,-348v193,2,305,80,340,248r-68,0v-31,-129,-113,-186,-271,-187v-185,-2,-307,105,-307,286v0,185,124,284,313,284v145,0,281,-80,274,-224r-291,0r0,-61r353,0","w":758},"H":{"d":"580,0r0,-323r-479,0r0,323r-66,0r0,-678r66,0r0,295r479,0r0,-295r66,0r0,678r-66,0","w":680},"I":{"d":"35,0r0,-678r66,0r0,678r-66,0","w":134},"J":{"d":"219,-54v119,0,162,-35,162,-151r0,-473r66,0r0,479v0,137,-75,206,-224,206v-139,0,-215,-62,-228,-186r67,0v9,92,54,125,157,125","w":486},"K":{"d":"613,0r-376,-347r-136,102r0,245r-66,0r0,-678r66,0r0,356r488,-356r107,0r-405,294r415,384r-93,0","w":670},"L":{"d":"35,0r0,-678r66,0r0,617r428,0r0,61r-494,0","w":505},"M":{"d":"718,0r0,-546r-283,546r-51,0r-283,-546r0,546r-66,0r0,-678r70,0r304,587r305,-587r70,0r0,678r-66,0","w":819},"N":{"d":"581,0r-480,-575r0,575r-66,0r0,-678r64,0r481,573r0,-573r66,0r0,678r-65,0","w":680},"O":{"d":"747,-339v0,215,-149,346,-368,346v-222,0,-366,-128,-366,-346v0,-214,145,-336,366,-336v221,0,368,122,368,336xm681,-339v0,-180,-118,-275,-302,-275v-183,0,-300,97,-300,275v0,178,118,285,300,285v185,0,302,-104,302,-285","w":757},"P":{"d":"612,-481v0,129,-125,192,-266,192r-245,0r0,289r-66,0r0,-678r322,0v170,0,255,66,255,197xm364,-350v94,1,181,-44,181,-130v0,-91,-61,-137,-182,-137r-262,0r0,267r263,0","w":621},"Q":{"d":"747,-337v-1,170,-94,286,-230,327v42,25,115,12,177,15r0,61v-110,1,-201,8,-253,-60v-253,30,-428,-105,-428,-343v0,-216,146,-338,366,-338v220,0,370,122,368,338xm681,-337v1,-181,-118,-277,-302,-277v-183,0,-301,98,-300,277v0,78,21,141,63,190v24,-50,86,-87,156,-87v89,-2,176,62,173,151v0,7,1,14,3,21v125,-30,206,-126,207,-275xm407,-84v5,-110,-197,-120,-215,-19v58,39,130,56,219,51v-3,-11,-4,-21,-4,-32","w":757},"R":{"d":"511,-331v63,30,94,82,94,155r0,176r-66,0r0,-173v0,-83,-60,-124,-179,-124r-259,0r0,297r-66,0r0,-678r334,0v164,0,246,61,246,182v0,78,-35,133,-104,165xm355,-359v107,1,193,-39,194,-135v0,-82,-59,-123,-178,-123r-270,0r0,258r254,0","w":642},"S":{"d":"616,-176v0,125,-144,184,-286,183v-189,-2,-329,-71,-316,-260r66,0v-8,142,72,195,251,199v110,2,219,-33,219,-125v0,-70,-38,-87,-102,-106v-45,-14,-288,-58,-317,-82v-63,-31,-95,-78,-95,-141v0,-118,92,-177,275,-177v191,0,288,76,291,228r-65,0v-11,-136,-78,-166,-226,-167v-139,0,-209,39,-209,116v0,92,83,102,191,122v123,22,205,45,246,69v51,30,77,77,77,141","w":642},"T":{"d":"306,-617r0,617r-66,0r0,-617r-260,0r0,-61r585,0r0,61r-259,0","w":545},"U":{"d":"629,-255v-1,185,-105,262,-297,262v-198,0,-297,-88,-297,-264r0,-421r66,0r0,420v0,136,77,204,231,204v154,0,231,-67,231,-200r0,-424r66,0r0,423","w":664},"V":{"d":"345,0r-53,0r-314,-678r71,0r270,582r261,-582r70,0","w":628},"W":{"d":"694,0r-53,0r-154,-345r-150,345r-53,0r-302,-678r70,0r259,580r140,-327r-112,-253r70,0r259,580r250,-580r70,0","w":970},"X":{"d":"566,0r-262,-300r-266,300r-84,0r307,-348r-293,-330r87,0r249,282r251,-282r86,0r-293,330r303,348r-85,0","w":604},"Y":{"d":"347,-325r0,325r-66,0r0,-325r-331,-353r86,0r277,294r278,-294r85,0","w":626},"Z":{"d":"15,0r0,-54r497,-563r-468,0r0,-61r561,0r0,53r-499,564r507,0r0,61r-598,0","w":626},"[":{"d":"79,168r0,-902r163,0r0,62r-97,0r0,778r97,0r0,62r-163,0","w":233},"\\":{"d":"315,0r-359,-694r71,0r359,694r-71,0","w":350},"]":{"d":"153,168r-162,0r0,-62r97,0r0,-778r-97,0r0,-62r164,0","w":233},"^":{"d":"200,-511r-53,-68r-53,68r-73,0r102,-135r46,0r109,135r-78,0","w":298},"_":{"d":"-23,119r0,-48r571,0r0,48r-571,0"},"`":{"d":"188,-553v-1,19,-35,32,-57,16v-27,-19,-61,-45,-102,-78v-24,-20,-36,-36,-9,-51v15,-10,30,-9,45,3v34,29,111,73,123,110","w":193},"a":{"d":"7,-243v0,-154,103,-257,257,-257v82,0,146,26,192,78r0,-76r66,0r0,499r-66,0r0,-71v-47,54,-112,81,-196,81v-151,0,-253,-103,-253,-254xm456,-243v0,-122,-72,-197,-197,-197v-114,0,-187,82,-187,197v0,116,71,194,187,194v114,0,197,-83,197,-194","w":564},"b":{"d":"549,-248v0,157,-100,260,-257,258v-79,0,-142,-27,-190,-82r0,73r-66,0r0,-679r66,0r0,246v45,-53,109,-79,191,-79v157,0,256,105,256,263xm484,-249v0,-121,-69,-201,-187,-201v-129,0,-194,77,-195,204v-1,113,81,195,196,195v117,0,186,-80,186,-198","w":564},"c":{"d":"515,-162v-26,112,-110,172,-241,173v-155,2,-263,-96,-263,-247v0,-160,109,-266,274,-264v119,2,199,56,224,159r-60,29v-24,-86,-64,-126,-166,-128v-128,-2,-206,80,-206,204v0,116,76,189,196,187v101,-2,162,-42,179,-139"},"d":{"d":"7,-249v0,-155,101,-262,257,-262v82,0,146,26,192,79r0,-246r66,0r0,679r-66,0r0,-72v-47,55,-112,82,-196,82v-153,0,-253,-106,-253,-260xm456,-249v0,-123,-71,-201,-197,-201v-114,0,-187,85,-187,201v0,118,70,199,187,199v114,0,197,-84,197,-199","w":564},"e":{"d":"265,-500v166,2,276,101,261,280r-457,1v9,113,73,170,193,170v93,0,155,-38,185,-115r68,0v-37,119,-115,173,-255,175v-162,2,-256,-92,-256,-254v0,-149,106,-259,261,-257xm454,-279v-8,-98,-82,-161,-189,-161v-108,0,-182,63,-194,161r383,0"},"f":{"d":"349,-606v-133,2,-209,27,-203,156r111,0r0,62r-111,0r0,389r-66,0r0,-389r-72,0r0,-62r72,0v-8,-152,80,-213,269,-216r0,60","w":267},"g":{"d":"8,-246v0,-151,101,-254,256,-254v76,0,137,25,182,75r0,-64r66,0r0,463v0,137,-82,205,-246,205v-137,-1,-224,-55,-230,-187r66,0v10,94,59,126,165,126v137,0,190,-60,179,-188v-48,49,-111,74,-189,74v-149,0,-249,-104,-249,-250xm446,-244v0,-108,-74,-195,-184,-195v-113,0,-188,82,-188,192v0,114,69,190,181,190v115,0,191,-74,191,-187","w":545},"h":{"d":"274,-511v120,0,214,64,214,178r0,333r-66,0r0,-324v0,-85,-59,-126,-147,-126v-105,0,-174,68,-173,171r0,279r-66,0r0,-678r66,0r0,231v41,-43,98,-64,172,-64"},"i":{"d":"102,-587v-22,29,-52,31,-66,-3r0,-72v17,-34,42,-32,66,-3r0,78xm36,0r0,-500r66,0r0,500r-66,0","w":136},"j":{"d":"102,-586v-22,29,-52,31,-66,-3r0,-72v16,-35,43,-33,66,-3r0,78xm-171,118v131,-1,204,-32,204,-148r0,-468r66,0r0,469v0,139,-90,208,-270,208r0,-61","w":136},"k":{"d":"461,0r-256,-264r-103,72r0,192r-66,0r0,-678r66,0r0,410r333,-233r116,3r-293,197r293,301r-90,0","w":532},"l":{"d":"36,0r0,-678r66,0r0,678r-66,0","w":136},"m":{"d":"250,-440v-92,0,-148,73,-148,167r0,273r-66,0r0,-489r66,0r0,49v72,-83,263,-83,316,17v35,-51,93,-77,172,-77v127,0,191,58,191,174r0,326r-66,0r0,-317v0,-82,-41,-123,-123,-123v-88,0,-151,50,-150,136r0,304r-66,0r0,-317v0,-82,-42,-123,-126,-123","w":817},"n":{"d":"274,-500v119,0,215,62,214,174r0,326r-66,0r0,-317v0,-84,-60,-123,-147,-123v-104,0,-174,66,-173,167r0,273r-66,0r0,-489r66,0r0,52v41,-42,98,-63,172,-63"},"o":{"d":"540,-244v0,152,-111,255,-268,255v-158,0,-265,-102,-265,-255v0,-152,109,-256,267,-256v158,0,266,103,266,256xm474,-244v0,-120,-78,-196,-201,-196v-122,0,-200,78,-200,196v0,117,80,195,200,195v120,0,201,-78,201,-195","w":545},"p":{"d":"549,-241v0,158,-98,264,-256,262v-81,0,-145,-26,-191,-79r0,226r-66,0r0,-657r66,0r0,68v46,-53,109,-79,190,-79v157,0,257,102,257,259xm484,-240v0,-117,-70,-199,-186,-199v-117,0,-196,81,-196,196v0,135,65,203,195,203v116,0,187,-82,187,-200","w":564},"q":{"d":"7,-241v0,-151,105,-259,255,-259v83,0,147,26,193,79r0,-68r66,0r0,657r-66,0r0,-222v-44,50,-110,75,-197,75v-149,0,-251,-111,-251,-262xm456,-240v0,-119,-82,-199,-199,-199v-115,0,-184,81,-184,199v0,116,72,200,185,200v125,0,198,-74,198,-200","w":564},"r":{"d":"315,-440v-151,-3,-213,94,-213,242r0,198r-66,0r0,-489r66,0r0,67v47,-52,118,-78,213,-78r0,60","w":318},"s":{"d":"458,-132v0,99,-95,145,-209,145v-153,0,-230,-70,-230,-209r68,0v1,109,51,146,163,147v72,1,136,-22,140,-83v4,-63,-122,-79,-194,-89v-104,-14,-156,-60,-156,-134v0,-94,92,-146,192,-146v148,0,222,62,223,187r-69,0v-1,-95,-49,-124,-149,-125v-65,-1,-129,28,-129,84v0,35,30,57,91,68r106,18v102,17,153,63,153,137","w":486},"t":{"d":"164,-410r0,410r-64,0r-2,-410r-100,0r0,-61r100,0r0,-143r66,0r0,143r101,0r0,61r-101,0","w":263},"u":{"d":"250,-49v110,0,172,-64,172,-175r0,-264r66,0r0,489r-66,0r0,-53v-42,42,-99,63,-172,63v-126,2,-215,-64,-214,-184r0,-315r66,0r0,314v0,83,49,125,148,125"},"v":{"d":"273,0r-55,0r-244,-488r75,0r195,400r181,-400r72,0","w":471},"w":{"d":"565,0r-57,0r-117,-249r-110,249r-56,0r-232,-488r75,0r184,397r102,-236r-78,-161r76,0r183,397r171,-397r72,0","w":771},"x":{"d":"427,0r-194,-206r-193,206r-86,0r237,-252r-216,-236r86,0r172,190r176,-190r84,0r-216,236r236,252r-86,0","w":467},"y":{"d":"250,-39v112,0,172,-67,172,-180r0,-269r66,0r0,462v0,137,-82,205,-247,205v-136,0,-224,-56,-229,-187r66,0v10,94,59,126,165,126v126,0,184,-51,179,-161v-42,43,-99,65,-172,65v-127,1,-215,-66,-214,-188r0,-322r66,0r0,321v0,85,49,128,148,128"},"z":{"d":"6,0r0,-51r350,-377r-321,0r0,-60r416,0r0,50r-351,378r368,0r0,60r-462,0","w":473},"{":{"d":"209,31v0,65,7,80,68,75r0,62v-88,7,-135,-23,-134,-112r0,-218v-4,-80,-8,-67,-76,-99r0,-45v68,-31,76,-18,76,-98r0,-218v-1,-88,46,-119,134,-112r0,62r-33,0v-37,3,-33,26,-35,74v-5,113,25,273,-49,315v79,39,49,203,49,314","w":350},"|":{"d":"84,32r0,-738r66,0r0,738r-66,0","w":233},"}":{"d":"277,-261v-69,32,-76,17,-76,99r0,218v1,88,-46,119,-134,112r0,-62v59,5,68,-11,68,-75v0,-111,-29,-275,48,-314v-73,-42,-48,-203,-48,-315v0,-63,-8,-79,-68,-74r0,-62v88,-6,135,24,134,112r0,218v4,81,7,67,76,98r0,45","w":350},"~":{"d":"518,-456v-11,70,-64,103,-138,105v-27,6,-186,-51,-212,-51v-32,0,-52,17,-60,52r-77,0v12,-69,65,-104,139,-105v25,-6,183,52,210,52v33,0,53,-18,61,-53r77,0","w":548},"\u00c7":{"d":"29,-330v0,-217,152,-355,373,-355v133,0,232,46,298,138r-56,35v-52,-74,-133,-111,-242,-111v-182,0,-307,110,-307,289v0,177,117,288,296,288v105,0,187,-38,245,-113r55,35v-72,93,-172,139,-299,139v-217,0,-363,-132,-363,-345xm429,86v-9,-22,-69,-23,-98,-2v-2,-47,5,-86,9,-127r64,0r-2,51v65,3,98,30,98,82v0,56,-42,84,-126,84v-25,1,-76,-10,-125,-24r33,-56v40,12,70,18,89,18v39,0,58,-9,58,-26","w":719},"\u00d6":{"d":"437,-698v-43,0,-32,-47,-33,-85v0,-21,11,-31,33,-31v39,0,32,46,33,83v0,22,-11,33,-33,33xm321,-698v-42,0,-31,-47,-32,-85v0,-21,11,-31,32,-31v40,0,33,46,34,83v0,22,-11,33,-34,33xm747,-342v0,216,-148,349,-368,349v-223,0,-366,-130,-366,-349v0,-218,145,-340,366,-340v221,0,368,122,368,340xm681,-342v0,-182,-117,-279,-302,-279v-184,0,-300,98,-300,279v0,179,117,288,300,288v184,0,302,-107,302,-288","w":757},"\u00dc":{"d":"390,-698v-43,0,-32,-47,-33,-85v0,-21,11,-31,33,-31v43,0,32,45,33,83v0,22,-11,33,-33,33xm274,-698v-42,0,-31,-47,-32,-85v0,-21,11,-31,32,-31v44,0,33,44,34,83v0,22,-11,33,-34,33xm629,-258v-1,186,-104,266,-297,265v-198,0,-297,-89,-297,-267r0,-425r66,0r0,424v0,138,77,207,231,207v154,0,231,-68,231,-203r0,-428r66,0r0,427","w":664},"\u00e7":{"d":"515,-155v-25,114,-110,174,-241,176v-156,3,-263,-99,-263,-251v0,-162,107,-272,274,-270v120,2,198,58,224,162r-60,30v-24,-88,-64,-129,-166,-131v-130,-2,-206,82,-206,209v-1,117,76,194,196,191v101,-2,163,-44,179,-142xm335,87v-9,-21,-70,-21,-99,-2v-2,-47,6,-84,10,-125r64,0r-2,50v65,3,97,30,97,81v0,55,-42,83,-126,83v-26,0,-67,-8,-122,-23r30,-56v41,12,70,18,89,18v39,0,59,-9,59,-26"},"\u00f6":{"d":"331,-509v-42,0,-32,-46,-33,-84v0,-21,11,-31,33,-31v43,0,32,44,33,82v0,22,-11,33,-33,33xm215,-509v-41,0,-31,-47,-32,-84v0,-21,11,-31,32,-31v44,0,33,44,34,82v0,22,-11,33,-34,33xm540,-248v0,154,-110,259,-268,259v-159,0,-265,-105,-265,-259v0,-154,109,-260,267,-260v159,0,266,106,266,260xm474,-248v0,-122,-77,-200,-201,-200v-123,0,-200,80,-200,200v0,118,80,198,200,198v120,0,201,-80,201,-198","w":545},"\u00fc":{"d":"320,-509v-41,0,-31,-47,-32,-84v0,-21,11,-31,32,-31v44,0,33,44,34,82v0,22,-11,33,-34,33xm205,-509v-42,0,-32,-46,-33,-84v0,-21,11,-31,33,-31v43,0,32,44,33,82v0,22,-11,33,-33,33xm250,-50v113,0,172,-68,172,-179r0,-268r66,0r0,498r-66,0r0,-54v-42,43,-99,64,-172,64v-126,1,-215,-65,-214,-187r0,-321r66,0r0,320v0,85,49,127,148,127"},"\u0131":{"d":"36,0r0,-488r66,0r0,488r-66,0","w":136},"\u00a0":{"w":354}}});
